{
  "w1": [
    [
      -0.5163016974204803,
      -0.4448521130407051,
      -0.1064313042817357,
      0.0,
      0.0,
      -0.7344796462882894
    ],
    [
      -0.37592082597307186,
      -0.27357861451489934,
      0.0,
      0.11240025099200562,
      0.0,
      -0.6196252806830936
    ],
    [
      0.14598634065819355,
      0.1303758928800908,
      0.1346494765961605,
      0.34560430143461474,
      0.37462401383902666,
      0.2719546821955847
    ],
    [
      0.10791585509722489,
      -0.41079444463104325,
      -0.16320821879528224,
      0.0,
      0.0,
      -0.592548968855491
    ],
    [
      -0.4206312978750825,
      -0.3120181602558688,
      0.0,
      0.15609724585839085,
      0.11930704280377137,
      -0.7109582737909963
    ],
    [
      0.2507734195987612,
      0.19420044031749203,
      0.15734813335984446,
      0.42308166356355925,
      0.47411888096685656,
      0.49251271232716437
    ],
    [
      0.2640959061343235,
      0.28398091966749,
      -0.27348433598897337,
      -0.2535993224558069,
      -0.2337143089226445,
      -0.21382929538947804
    ],
    [
      0.0,
      0.0,
      0.0,
      0.0,
      0.0,
      0.0
    ],
    [
      0.2775830503811814,
      0.20468321617159954,
      0.1535278487794199,
      0.47044060738222265,
      0.5284154040313828,
      0.552894510181392
    ],
    [
      0.2518062919040809,
      0.27169130543724324,
      -0.285773950219216,
      -0.2658889366860536,
      -0.24600392315288713,
      -0.22611890961972475
    ],
    [
      -0.10547260378268652,
      0.0,
      -0.10955195236022391,
      0.0,
      0.0,
      0.0
    ],
    [
      0.26587852106195786,
      0.18924294674079856,
      0.12660249059335799,
      0.4771293280711778,
      0.5365592773392639,
      0.5469657856051832
    ],
    [
      0.2614406023337259,
      0.27151578390335185,
      0.2657067377726794,
      -0.28697938546717094,
      -0.2615191019200091,
      -0.1870841816921855
    ],
    [
      -0.11476976640853855,
      -0.10720835271700763,
      -0.12309033417527171,
      0.0,
      0.0,
      0.0
    ],
    [
      0.2985783359831222,
      0.198684077322067,
      0.1000886628373168,
      0.5381099002845285,
      0.6076891044477244,
      0.625597385298587
    ],
    [
      0.18476665560436845,
      0.22125020703705803,
      0.2799225045284219,
      0.2532247864703524,
      -0.31126846823699134,
      -0.33460714592893837
    ]
  ],
  "b1": [
    1.0025473039850652,
    0.7545397049219871,
    0.3471914336296043,
    0.7227078669707919,
    0.9255043163927051,
    0.3882223923594757,
    0.01,
    -0.04335781654564568,
    0.4619747282885879,
    0.01,
    -0.05124146726819777,
    0.48936977795630837,
    -0.04607158598945295,
    -0.05726192332709925,
    0.5705931350403736,
    0.005219226922140617
  ],
  "w2": [
    [
      0.0,
      0.0,
      0.0,
      0.0,
      0.0,
      0.0,
      0.0,
      0.0,
      0.0,
      0.11834673263962814,
      0.1307269957633437,
      0.1181585146071211,
      0.1548786231399186,
      0.16726899214720642,
      -0.1974656315334825,
      -0.1653958069865297
    ],
    [
      0.8555483783090888,
      0.7261054794094365,
      0.0,
      0.580310926283537,
      0.8647105967361735,
      -0.2489018082183019,
      -0.15639523726930815,
      -0.13876588418346997,
      -0.19873404478968157,
      -0.11986413475585864,
      0.0,
      -0.13089707540426118,
      0.0,
      0.0,
      0.0,
      0.0
    ],
    [
      -0.11411491909841512,
      -0.1019378849272636,
      0.0,
      0.0,
      0.0,
      0.0,
      0.0,
      0.0,
      0.0,
      0.0,
      0.0,
      0.0,
      0.0,
      0.0,
      0.0,
      0.0
    ],
    [
      -0.28453105913987237,
      0.0,
      0.6214316734159457,
      -0.10489765313440653,
      0.0,
      0.8435368325338595,
      0.0,
      0.0,
      0.9633555069944424,
      0.11082091163969528,
      0.11542882578877768,
      0.9936950618427914,
      0.14395712112623513,
      0.14894025150913906,
      1.1404394361713825,
      -0.2680950695487583
    ],
    [
      0.7990428553877927,
      0.6835429316283178,
      0.10746545654560323,
      0.5457224067797005,
      0.8164527393997699,
      -0.23992338771409444,
      -0.163921058269241,
      -0.14690128307743258,
      -0.19082924732308176,
      -0.12738995575580156,
      -0.1077956589044023,
      -0.12590368735494104,
      0.0,
      0.0,
      0.0,
      0.0
    ],
    [
      -0.121640740098348,
      -0.1094637059272015,
      0.0,
      0.0,
      0.0,
      0.0,
      0.0,
      0.0,
      0.0,
      0.0,
      0.0,
      0.0,
      0.0,
      0.0,
      0.0,
      0.0
    ],
    [
      -0.1299382308342162,
      0.0,
      0.12559669391997635,
      0.0,
      0.0,
      0.21310603802198907,
      0.0,
      0.0,
      0.2800399198842237,
      0.10329509063976242,
      0.11213434439410411,
      0.32805886442964743,
      0.13781156348189263,
      0.14727000696078035,
      0.4035314356380493,
      0.13356560571766005
    ],
    [
      0.4623446075383326,
      0.43900473025530906,
      0.0,
      0.35440240015013474,
      0.529525966252197,
      0.11000725311719213,
      -0.17144687926918392,
      -0.15759576383477372,
      -0.19755071138290967,
      -0.1349157767557344,
      -0.12020202325714967,
      -0.1401710894654055,
      0.0,
      0.0,
      0.0,
      0.0
    ]
  ],
  "b2": [
    -0.06913134839014345,
    0.9559459437720252,
    0.01,
    0.7349891138932101,
    0.903527850162486,
    0.01,
    0.20605179882518196,
    0.4500588660773056
  ],
  "w3": [
    [
      -0.21309080668719083,
      -1.4233426754570835,
      -0.19079972126606037,
      1.2211525690799307,
      -1.2924973908689066,
      -0.13913694064311244,
      0.38468823425349435,
      -0.7054048436685442
    ],
    [
      0.0,
      0.9649556028250825,
      0.0,
      -1.7070226411837313,
      0.9513289567678711,
      0.0,
      -0.46833151011657,
      0.598596659728353
    ],
    [
      0.0,
      0.3236820100847621,
      0.13543819998319861,
      0.45449057080245303,
      0.36145171342263605,
      0.18710098060616076,
      0.20725211643058855,
      0.2820798051306703
    ]
  ],
  "b3": [
    0.1559735625154464,
    -0.40368852074914624,
    0.2777149582337011
  ],
  "train_count": 1800,
  "version": 1,
  "created_at": "2026-02-07T06:09:47.411169926+00:00"
}